\data\
ngram 1=3
ngram 2=2
ngram 3=1

\1-grams:
-0.7782 </s> -0.3010
-0.7782 <s> -0.2218
-0.7782 pataka -0.2218

\2-grams:
-0.3010 <s> pataka 0.0000
-0.3010 pataka </s> -0.3010

\3-grams:
-0.3010 <s> pataka </s>

\end\